77 16
Valjean -0.129925 -0.215171 0.510442 -0.272727 -0.193650 -0.131394 0.356559 -0.049976 -0.563673 -0.610130 -0.084538 -0.190018 -0.087720 0.029813 -0.334479 -0.432589
Gavroche -0.174787 0.010107 0.385191 0.421803 -0.121071 0.037697 0.268877 -0.657542 -0.105291 -0.791496 0.072466 -0.075712 0.059057 0.019053 0.042064 -0.782521
Marius 0.246650 0.048983 0.404002 0.195892 -0.363448 0.325677 0.094054 -0.766824 0.022076 -0.941512 0.036916 -0.301298 0.158987 -0.342975 0.267717 -0.495259
Javert -0.371190 -0.033745 0.277237 -0.180906 -0.409497 -0.054038 0.219860 -0.188334 -0.318100 -0.639644 -0.100939 -0.478430 -0.085044 -0.089076 -0.178185 -0.754840
Enjolras 0.149847 0.015466 0.505411 0.333809 -0.220728 0.016008 0.152593 -0.989931 0.086197 -0.720132 0.126361 -0.000711 0.181672 -0.091381 0.005162 -0.625023
Thenardier -0.489955 -0.203862 0.094686 0.328869 -0.420700 0.152065 0.024946 -0.417118 -0.206407 -0.798965 -0.260245 -0.523550 -0.048162 -0.119612 -0.090621 -0.795259
Fantine -0.542523 0.273516 0.409648 -0.429880 -0.384750 -0.601903 -0.059953 -0.404373 -0.140513 -0.579073 -0.528684 -0.542092 0.138208 -0.822923 -0.404968 -0.139947
Bossuet 0.314942 0.068010 0.514018 0.191266 -0.231852 0.083968 0.220849 -1.038469 0.071984 -0.846954 0.181227 -0.048650 0.212906 -0.039276 0.127239 -0.562932
Courfeyrac 0.184778 0.017533 0.531614 0.237934 -0.257832 0.114875 0.200616 -0.948633 0.057604 -0.805860 0.195488 -0.094162 0.150401 -0.040746 0.049818 -0.747507
Bahorel 0.090705 0.039634 0.541208 0.446170 -0.003965 0.139469 0.093862 -1.083703 0.053306 -0.756354 0.120078 0.137365 0.231545 -0.219300 -0.037690 -0.622298
Joly 0.164521 0.062740 0.433189 0.348107 -0.208259 0.135672 0.086104 -1.094135 0.212176 -0.779606 0.049278 -0.074861 0.248047 -0.203288 -0.004214 -0.594419
Combeferre 0.292440 0.154173 0.555555 0.348521 -0.186959 0.082514 0.218913 -1.052300 0.091164 -0.927594 0.177994 -0.061754 0.213517 -0.138208 0.217111 -0.621011
Feuilly 0.218246 -0.115782 0.488836 0.247141 -0.283282 0.067810 0.181281 -0.977788 0.049556 -0.787355 0.199063 -0.117388 0.143848 0.053716 -0.048402 -0.603402
Myriel 0.352899 -0.782162 1.053375 -0.291152 0.058157 -0.060685 0.237772 -0.350913 -0.870514 -0.319033 -0.286535 0.460125 0.004017 -0.062689 -1.142419 -0.056365
Mabeuf 0.133854 0.051409 0.465216 0.332017 -0.217457 0.156683 0.160796 -0.923011 0.041583 -0.852048 0.144371 -0.169874 0.131911 -0.054698 0.100788 -0.677076
Cosette -0.023499 -0.086518 0.323327 -0.150362 -0.387751 0.371755 0.101950 -0.114574 -0.351820 -0.712494 -0.164606 -0.302533 0.018620 -0.504927 -0.029771 -0.474050
MmeThenardier -0.487307 -0.229385 0.141171 -0.035614 -0.464100 0.075426 0.097486 -0.153115 -0.328753 -0.653675 -0.310973 -0.526773 -0.096543 -0.237625 -0.327487 -0.669970
Grantaire 0.254931 -0.058271 0.513632 0.294638 -0.177106 0.200744 0.126630 -1.071535 0.067417 -0.766632 0.147646 -0.001364 0.190783 -0.118245 -0.005483 -0.627212
Claquesous -0.555655 -0.355935 0.149448 0.170192 -0.356517 0.055446 0.120241 -0.256516 -0.384886 -0.670667 -0.204642 -0.441994 -0.144938 0.041151 -0.323746 -0.845194
Gueulemer -0.378836 -0.335909 0.172333 0.193847 -0.372193 0.214296 0.111468 -0.365666 -0.305985 -0.646334 -0.150867 -0.295416 -0.090082 0.032104 -0.238026 -0.918749
Eponine -0.339924 -0.356147 0.139434 0.311152 -0.371273 0.210833 0.204454 -0.393412 -0.285592 -0.760378 -0.111116 -0.318455 -0.101038 0.110464 -0.218623 -0.875876
Babet -0.442381 -0.315768 0.179336 0.172366 -0.331157 0.119850 0.082571 -0.273101 -0.291272 -0.576323 -0.195811 -0.374974 -0.049304 -0.040504 -0.325612 -0.762174
Prouvaire 0.144925 0.077246 0.503540 0.451046 -0.208779 0.126210 0.150036 -1.111944 0.122711 -0.841853 0.198077 -0.025360 0.182818 -0.142734 0.064193 -0.794534
Tholomyes -0.495772 0.407143 0.395519 -0.187898 -0.434275 -0.569660 -0.192607 -0.767430 0.084878 -0.651243 -0.647854 -0.622755 0.310192 -1.072429 -0.357389 -0.018582
Montparnasse -0.456964 -0.290661 0.225499 0.222146 -0.321227 0.132954 0.092060 -0.269012 -0.338580 -0.665689 -0.180023 -0.376066 -0.129152 0.019295 -0.214807 -0.790166
Bamatabois -0.228617 0.075000 0.716978 -0.322847 -0.123466 -0.483125 0.491754 0.034120 -0.627649 -0.712463 -0.063534 -0.174047 -0.179510 0.053182 -0.131603 -0.254291
Dahlia -0.611308 0.432237 0.469521 -0.285349 -0.398037 -0.649376 -0.201578 -0.779706 0.026839 -0.746188 -0.765991 -0.672469 0.288734 -1.220406 -0.484507 0.007109
Blacheville -0.613578 0.394695 0.496790 -0.299874 -0.405059 -0.644715 -0.247484 -0.685706 0.018003 -0.672033 -0.753292 -0.577958 0.299620 -1.177371 -0.589728 0.046095
Listolier -0.615203 0.389135 0.509110 -0.302507 -0.332396 -0.701289 -0.215091 -0.746368 -0.004872 -0.624036 -0.792224 -0.615274 0.263089 -1.170361 -0.631824 0.102218
Zephine -0.606614 0.249279 0.438181 -0.286901 -0.350521 -0.517839 -0.287636 -0.552277 -0.040210 -0.671894 -0.767049 -0.611427 0.230630 -1.196762 -0.603351 -0.081609
Favourite -0.582809 0.387159 0.473431 -0.294515 -0.398514 -0.569755 -0.203097 -0.578860 -0.020023 -0.702451 -0.673514 -0.608653 0.234734 -1.074837 -0.438201 -0.023030
Fameuil -0.518546 0.387303 0.435233 -0.315025 -0.362707 -0.621959 -0.127569 -0.585738 -0.047847 -0.663284 -0.581481 -0.612166 0.222172 -1.022039 -0.385825 -0.058191
Brujon -0.610006 -0.333356 0.120581 0.502271 -0.337829 0.234920 0.094147 -0.389056 -0.259785 -0.736650 -0.202879 -0.349471 -0.081087 0.002155 -0.215799 -1.081527
MmeHucheloup 0.004005 0.095351 0.404157 0.338441 -0.254499 0.169371 0.053296 -0.950988 0.111278 -0.838795 0.096218 -0.206954 0.130868 -0.202705 0.122365 -0.775840
Cochepaille -0.214299 0.114431 0.832271 -0.356587 -0.088740 -0.634992 0.609369 -0.019214 -0.682755 -0.811510 0.036798 -0.174917 -0.243498 0.291296 -0.059764 -0.340748
MlleGillenormand 0.429257 -0.187992 0.473544 -0.239425 -0.374585 0.594764 0.022109 -0.117192 -0.319377 -0.918906 -0.136339 -0.224527 0.091580 -0.636522 0.173786 -0.158268
Chenildieu -0.199067 0.126918 0.882789 -0.444507 -0.073614 -0.620070 0.607297 0.130394 -0.750944 -0.872104 -0.054263 -0.133701 -0.222617 0.008021 0.007117 -0.278201
Champmathieu -0.118483 0.025567 0.851256 -0.433422 -0.090320 -0.452450 0.565244 0.133641 -0.769406 -0.807042 -0.061220 -0.102585 -0.214722 0.088226 -0.086612 -0.300400
Brevet -0.213736 0.186103 0.993713 -0.407695 -0.011577 -0.755159 0.730045 0.075189 -0.808654 -0.939249 -0.022850 -0.069787 -0.279937 0.111626 -0.032132 -0.305275
Judge -0.247542 0.163980 0.798037 -0.308416 -0.102600 -0.626868 0.684136 0.031700 -0.722012 -0.954613 0.025970 -0.197488 -0.236881 0.232348 0.115457 -0.298857
Gillenormand 0.157674 -0.091841 0.329446 -0.336615 -0.325369 0.472920 0.128635 -0.048598 -0.327737 -0.772861 -0.100948 -0.303915 0.150008 -0.702926 -0.073874 -0.464607
Fauchelevent -0.116067 -0.182406 0.566032 -0.709211 -0.312033 -0.198472 0.175639 0.069991 -0.614576 -0.628020 -0.220222 -0.583703 -0.301354 0.231837 -0.306512 -0.535745
LtGillenormand 0.302191 -0.162549 0.313488 -0.270372 -0.456255 0.691636 0.007722 -0.036953 -0.345403 -0.894789 -0.200583 -0.435729 0.123665 -0.772115 0.004470 -0.342186
Simplice -0.378701 0.147999 0.444617 -0.638876 -0.413484 -0.531707 0.152304 -0.079948 -0.360967 -0.577197 -0.356433 -0.477277 0.006806 -0.444950 -0.229552 -0.309578
MlleBaptistine 0.099359 -0.610441 0.844536 -0.222336 0.026567 -0.055812 0.203490 -0.230326 -0.788858 -0.328029 -0.288046 0.217258 -0.068692 -0.056578 -0.980277 -0.202749
MmeMagloire 0.181406 -0.645879 0.864151 -0.225080 -0.025212 0.024223 0.227343 -0.270425 -0.713304 -0.327661 -0.278010 0.251070 -0.056758 -0.092394 -0.921928 -0.174281
Woman2 -0.103467 -0.142765 0.414315 -0.228745 -0.293957 0.100625 0.177943 -0.115962 -0.392013 -0.568169 -0.136840 -0.267726 -0.024628 -0.255566 -0.219344 -0.473703
Toussaint -0.243851 -0.102728 0.431137 -0.287532 -0.302487 -0.047558 0.244548 -0.087105 -0.432109 -0.553336 -0.158080 -0.256090 -0.047934 -0.219362 -0.276095 -0.595179
Pontmercy 0.239390 -0.405762 0.303583 0.027737 -0.495470 0.508315 -0.009373 -0.137872 -0.481324 -1.092692 -0.228456 -0.586858 -0.053010 -0.294855 0.281182 -0.183644
Anzelma -0.457653 -0.292069 0.176086 0.245435 -0.400119 0.109571 0.126430 -0.361040 -0.241185 -0.696343 -0.139829 -0.474394 -0.100200 0.017039 -0.256120 -0.830916
MotherInnocent -0.157798 -0.149275 0.429188 -0.470676 -0.287391 -0.068667 0.118859 -0.014497 -0.482078 -0.596091 -0.276682 -0.541793 -0.194253 0.012940 -0.299101 -0.496778
Woman1 -0.385351 -0.118148 0.410497 -0.414237 -0.315156 -0.276001 0.145469 -0.059019 -0.504404 -0.575254 -0.303252 -0.366098 -0.080929 -0.197441 -0.332611 -0.441794
MmeBurgon -0.501113 0.336340 0.685064 0.944209 0.593426 0.540230 0.038338 -0.545280 -0.415502 -0.981272 0.092690 0.550945 0.034698 -0.893310 0.223277 -1.109576
Perpetue -0.580357 0.198920 0.427267 -0.665197 -0.440386 -0.653142 0.044648 -0.210912 -0.341010 -0.524991 -0.458112 -0.524484 0.025299 -0.648082 -0.374461 -0.331263
Marguerite -0.205280 -0.051224 0.531266 -0.367198 -0.226668 -0.359407 0.112800 -0.182801 -0.424047 -0.490804 -0.333093 -0.277853 0.015055 -0.324723 -0.433138 -0.182381
Child2 -0.230254 0.018172 0.576231 0.616542 0.031309 0.040857 0.315639 -0.670054 -0.170486 -0.893997 0.168628 0.060358 0.053993 -0.007670 0.216826 -1.065923
Child1 -0.214432 -0.061901 0.536501 0.574151 -0.019596 0.105876 0.279741 -0.576045 -0.233108 -0.862613 0.156414 0.133027 -0.042376 0.066584 0.102198 -1.094561
BaronessT 0.140515 0.039135 0.363074 -0.074272 -0.330229 0.407959 0.032805 -0.327154 -0.201993 -0.805412 -0.074725 -0.289029 0.145635 -0.608271 0.028261 -0.497620
MmePontmercy 0.531256 -0.388923 0.404661 -0.167075 -0.547897 0.761587 0.061288 0.009116 -0.640711 -1.296472 -0.201408 -0.542035 -0.026666 -0.390813 0.502390 -0.111086
Magnon -0.165956 -0.243802 0.181337 -0.190585 -0.378044 0.322372 0.121724 -0.133380 -0.312873 -0.660703 -0.151861 -0.420277 0.053064 -0.485795 -0.339272 -0.641101
CountessDeLo 0.446093 -0.800811 1.180025 -0.289185 0.102130 -0.039002 0.163817 -0.558980 -0.800171 -0.350723 -0.333419 0.436979 0.099624 -0.116268 -1.370710 -0.010257
Napoleon 0.437214 -0.821518 1.167139 -0.356247 0.043016 -0.005225 0.127822 -0.509737 -0.863110 -0.326408 -0.460652 0.426726 0.103526 -0.275756 -1.369353 0.027258
Labarre -0.080393 -0.219485 0.576315 -0.319672 -0.179815 -0.104536 0.275462 -0.101944 -0.529537 -0.614834 -0.225092 -0.136256 -0.064892 -0.085516 -0.369477 -0.294143
Champtercier 0.266213 -0.840920 1.048270 -0.340334 0.044517 0.006789 0.159510 -0.360194 -0.870343 -0.287764 -0.445982 0.314507 0.029963 -0.195029 -1.381412 -0.068862
Cravatte 0.369188 -0.888838 1.193980 -0.326128 0.125248 0.030991 0.215950 -0.378020 -0.907069 -0.414180 -0.361891 0.456643 0.047713 -0.133073 -1.342715 -0.127161
Count 0.544290 -0.996686 1.317261 -0.216252 0.170871 0.032256 0.189854 -0.641770 -0.896584 -0.362522 -0.340974 0.623070 0.111347 -0.107328 -1.446015 -0.068287
Geborand 0.381058 -0.809070 1.101842 -0.327159 0.085080 -0.036664 0.186910 -0.366111 -0.834514 -0.299315 -0.380339 0.368575 0.042121 -0.120412 -1.280308 -0.017520
MmeDeR -0.046658 -0.202552 0.590654 -0.261334 -0.181839 -0.083197 0.283855 -0.038836 -0.538107 -0.609735 -0.159352 -0.056035 -0.132873 -0.074931 -0.267266 -0.408874
Jondrette -0.446587 0.381897 0.733539 0.908758 0.601486 0.515934 0.076659 -0.486956 -0.381059 -1.130012 0.057167 0.589828 -0.007751 -0.944332 0.227050 -1.163550
Gervais -0.175477 -0.173272 0.564849 -0.329991 -0.176612 -0.193467 0.221933 -0.112354 -0.541095 -0.551112 -0.271240 -0.160318 -0.075743 -0.135619 -0.377925 -0.224731
Scaufflaire -0.117923 -0.090742 0.686462 -0.334465 -0.079848 -0.328621 0.329959 -0.091196 -0.574450 -0.587969 -0.161176 -0.112524 -0.128731 -0.002298 -0.314433 -0.229647
Gribier -0.059708 -0.283173 0.651859 -0.638462 -0.159206 -0.160107 0.197661 0.082833 -0.690958 -0.689847 -0.205492 -0.406729 -0.245135 0.228642 -0.364171 -0.444875
OldMan 0.443976 -1.028072 1.187310 -0.378621 0.048089 0.107552 0.205405 -0.366254 -0.978966 -0.405339 -0.401134 0.429956 0.007365 -0.145597 -1.453623 -0.082838
Isabeau -0.079993 -0.025298 0.527396 -0.273393 -0.258706 -0.150892 0.234229 -0.318770 -0.352117 -0.655831 -0.165598 -0.274100 0.009558 -0.223261 -0.209940 -0.325213
MlleVaubois 0.412335 -0.253419 0.612845 -0.170104 -0.143386 0.370308 0.133021 -0.114919 -0.563019 -0.790350 -0.134151 0.049721 -0.003919 -0.369079 0.026755 -0.179294
Boulatruelle -0.449795 -0.176500 0.218987 0.217177 -0.347451 0.132708 0.025480 -0.376552 -0.234217 -0.710516 -0.230649 -0.409329 -0.020506 -0.252868 -0.178782 -0.741044
MotherPlutarch 0.125005 -0.078138 0.421320 0.374888 -0.201180 0.356100 0.118636 -0.874878 -0.031980 -0.849892 0.097992 -0.123060 0.125037 -0.134964 0.057364 -0.802485
