77 16
Valjean 0.219436 -0.174082 0.318169 -0.335068 0.224676 -0.120809 0.074942 0.070093 -0.503781 -0.323430 0.095133 -0.125094 0.668631 -0.147654 -0.348200 -0.147498
Gavroche 0.194762 -0.012658 0.280248 0.008832 0.179054 0.336882 -0.001652 -0.173504 -0.456974 -0.187404 -0.074777 -0.206912 0.839835 -0.173468 0.004389 -0.617249
Marius 0.375095 -0.110479 0.315590 0.054880 0.051548 0.377133 -0.208108 -0.132508 -0.454229 -0.261350 -0.075662 -0.187831 0.669887 -0.411013 0.015261 -0.350650
Javert 0.178163 -0.120896 0.349237 -0.244644 0.110469 0.008374 0.124002 0.018152 -0.461758 -0.327403 0.026528 -0.183318 0.649543 -0.151823 -0.354764 -0.352492
Thenardier 0.182861 -0.047470 0.314612 0.009899 -0.057516 0.256956 -0.059738 -0.068543 -0.417975 -0.356569 -0.126867 -0.249134 0.652691 -0.402671 -0.146294 -0.567908
Fantine -0.000016 -0.169319 0.599917 -0.157018 -0.006540 -0.295163 -0.057645 -0.276678 -0.168517 -0.585318 -0.068076 -0.334535 0.402728 -0.628059 -0.712431 -0.322179
Myriel 0.630313 -0.988767 0.529306 -0.195095 0.694166 -0.312362 -0.321096 -0.546777 -0.730501 0.114484 0.128541 0.503151 0.927774 -0.104908 -0.641410 0.430772
Enjolras 0.387950 0.082424 0.314365 0.011223 0.222623 0.433734 0.070216 -0.398986 -0.412641 -0.309753 0.053150 -0.192003 0.793907 -0.102293 0.135902 -0.556348
Eponine 0.307577 -0.144807 0.238437 -0.087337 0.066168 0.356836 0.112570 -0.087988 -0.519380 -0.302043 -0.032994 -0.115701 0.774465 -0.083363 -0.088257 -0.529308
Cosette 0.262350 0.039131 0.433309 -0.094943 -0.055529 0.129735 -0.179857 -0.004172 -0.292150 -0.481123 -0.038323 -0.377704 0.547323 -0.710388 -0.228837 -0.272338
MmeThenardier 0.228699 -0.228446 0.269262 -0.177235 0.051317 0.065389 0.081573 0.045672 -0.462098 -0.323669 0.034061 -0.092096 0.641520 -0.205881 -0.349021 -0.311551
Courfeyrac 0.405564 -0.003567 0.295271 -0.020663 0.205141 0.561303 0.006953 -0.400457 -0.433999 -0.186721 0.003183 -0.221448 0.794812 -0.035815 0.100940 -0.621030
Bossuet 0.450491 0.053117 0.244431 -0.086515 0.209062 0.418325 0.054949 -0.365250 -0.449585 -0.339358 0.084472 -0.223715 0.779503 -0.083418 0.128644 -0.469121
Mabeuf 0.410222 0.110730 0.303555 0.012559 0.219774 0.524446 0.070669 -0.398270 -0.466564 -0.381543 0.044355 -0.318112 0.791055 -0.014914 0.158530 -0.609941
Bahorel 0.362632 0.108951 0.333304 0.035910 0.217768 0.528303 0.033751 -0.511453 -0.400318 -0.405104 0.053979 -0.317233 0.808888 -0.152946 0.160022 -0.632362
Joly 0.363479 0.106766 0.300252 -0.033471 0.165834 0.539682 0.078836 -0.303618 -0.441690 -0.333933 -0.021224 -0.293281 0.831849 -0.097867 0.132592 -0.675173
Claquesous 0.206003 -0.215262 0.219036 -0.135430 0.128840 0.207619 0.081602 0.032362 -0.557368 -0.201360 0.009383 -0.086942 0.753695 -0.074452 -0.189804 -0.427169
Babet 0.156804 -0.187150 0.252881 -0.107132 0.065878 0.198860 0.090274 0.107644 -0.538492 -0.294736 -0.045775 -0.147570 0.753656 -0.124755 -0.163532 -0.460113
Feuilly 0.380252 0.057666 0.316496 -0.011200 0.256885 0.496768 0.053806 -0.360526 -0.479033 -0.254704 0.046092 -0.215328 0.857595 -0.011653 0.151214 -0.585846
Gueulemer 0.190732 -0.201486 0.256894 -0.123600 -0.000770 0.207053 0.020093 0.011518 -0.506768 -0.255758 -0.061391 -0.079978 0.675173 -0.191670 -0.202881 -0.476972
Grantaire 0.420884 0.011300 0.260888 -0.001617 0.186405 0.536976 0.004227 -0.360400 -0.487322 -0.246967 0.037156 -0.234963 0.800435 -0.090142 0.179713 -0.558601
MlleGillenormand 0.502770 -0.140708 0.303800 0.036369 -0.060812 0.425986 -0.412322 0.287457 -0.566488 -0.250999 -0.108763 -0.181271 0.750459 -0.728745 0.126899 -0.104978
Combeferre 0.391816 0.092228 0.292286 0.030344 0.238773 0.452704 0.029007 -0.349276 -0.415679 -0.261965 -0.011563 -0.217034 0.807224 -0.150296 0.132580 -0.571610
Montparnasse 0.121421 -0.103749 0.326451 -0.151282 0.022668 0.202162 0.049477 -0.003585 -0.485423 -0.304089 -0.089716 -0.213258 0.695203 -0.147017 -0.210135 -0.532624
Tholomyes 0.084087 0.036955 0.711035 0.077115 -0.064077 -0.023278 -0.193150 -0.575672 -0.013626 -0.626157 -0.149671 -0.560326 0.407788 -0.852246 -0.541815 -0.581175
Prouvaire 0.504712 0.054301 0.240010 0.035862 0.234556 0.621877 0.065608 -0.349040 -0.557293 -0.206037 0.089440 -0.164330 0.910429 0.005144 0.267006 -0.593102
Gillenormand 0.420310 -0.219448 0.252160 -0.012778 0.043005 0.228384 -0.226995 0.192439 -0.504670 -0.260737 -0.042774 -0.110411 0.683355 -0.561629 -0.110115 -0.147006
Bamatabois 0.055928 0.132594 0.416606 -0.463842 0.287327 -0.504526 0.350500 0.151009 -0.411172 -0.743305 0.217653 -0.300612 0.627798 -0.197950 -0.479798 -0.106518
Brujon 0.145144 -0.164158 0.299380 -0.112582 -0.043546 0.206740 0.042938 0.106952 -0.485672 -0.224851 -0.125548 -0.150802 0.724703 -0.177538 -0.242387 -0.616516
MmeHucheloup 0.386608 0.115765 0.262504 -0.027977 0.216428 0.592602 0.037435 -0.270271 -0.504035 -0.280143 0.034227 -0.256177 0.840341 -0.016526 0.206641 -0.658682
Chenildieu 0.150767 -0.020923 0.379451 -0.535523 0.461007 -0.602353 0.391304 0.173755 -0.522363 -0.682431 0.239812 -0.181752 0.722428 -0.046343 -0.390662 0.097243
Brevet 0.149971 0.144707 0.375805 -0.477400 0.418868 -0.567613 0.444083 0.127698 -0.461789 -0.809134 0.235927 -0.250244 0.701748 -0.100379 -0.309739 0.032600
Cochepaille 0.085859 0.117545 0.408375 -0.515683 0.363369 -0.572005 0.414834 0.150847 -0.484392 -0.801915 0.225624 -0.315238 0.669131 -0.076370 -0.400720 -0.024891
Dahlia -0.013107 -0.040576 0.758643 0.008871 -0.009564 -0.209675 -0.174459 -0.663950 0.049330 -0.741363 -0.123658 -0.543154 0.354429 -0.856612 -0.687472 -0.539258
Judge 0.090613 0.082823 0.397317 -0.616562 0.376344 -0.700049 0.463417 0.256663 -0.548561 -0.908616 0.272791 -0.312907 0.730014 -0.131862 -0.489954 0.140231
Champmathieu 0.083793 0.112700 0.383879 -0.561116 0.355007 -0.608236 0.456610 0.280677 -0.460612 -0.834985 0.230661 -0.285342 0.732323 -0.084565 -0.431296 -0.007415
Blacheville -0.041488 -0.067355 0.762686 0.014191 -0.059840 -0.270720 -0.177321 -0.557464 0.035512 -0.764945 -0.094803 -0.464577 0.341838 -0.883355 -0.734473 -0.467056
Fameuil -0.064849 -0.109581 0.753792 -0.077101 0.052994 -0.439144 -0.118409 -0.495183 -0.024051 -0.743702 -0.060869 -0.469387 0.343404 -0.825811 -0.822076 -0.414542
Favourite 0.055235 -0.227431 0.745120 0.015467 0.061548 -0.269963 -0.198341 -0.721010 0.047549 -0.621212 -0.053608 -0.355067 0.342091 -0.723873 -0.736157 -0.332035
Zephine -0.002938 -0.121195 0.772571 -0.010595 0.000845 -0.306403 -0.190628 -0.632608 0.098003 -0.770756 -0.065919 -0.511047 0.323549 -0.867401 -0.790636 -0.469102
Listolier -0.019819 -0.003185 0.797996 0.022520 -0.001989 -0.199477 -0.131132 -0.629747 0.028689 -0.803663 -0.108926 -0.604189 0.348015 -0.904238 -0.713578 -0.520474
LtGillenormand 0.390677 -0.087526 0.323554 -0.056895 0.021718 0.180520 -0.274598 0.210453 -0.479518 -0.305310 -0.047409 -0.212875 0.627059 -0.645011 -0.137681 -0.149904
Fauchelevent 0.340247 -0.147004 0.310104 -0.593039 0.139814 -0.121840 -0.063385 0.349743 -0.550318 -0.223400 0.042363 -0.340656 0.559746 -0.145446 -0.574180 -0.163596
Pontmercy 0.328737 -0.039391 0.268742 -0.011827 0.022926 0.233835 -0.243297 0.065542 -0.484525 -0.352668 -0.113289 -0.290914 0.695838 -0.530763 -0.022870 -0.288554
Simplice 0.066541 -0.148542 0.450826 -0.272151 0.020419 -0.240409 0.040670 -0.082578 -0.240351 -0.515004 -0.040899 -0.270287 0.509458 -0.444667 -0.606890 -0.337128
MlleBaptistine 0.501353 -0.782214 0.430519 -0.308943 0.594127 -0.334814 -0.135122 -0.251536 -0.727408 0.037199 0.157139 0.351955 0.786878 0.019574 -0.605415 0.293253
MmeMagloire 0.529939 -0.806154 0.498374 -0.340816 0.585269 -0.361368 -0.130681 -0.258825 -0.713596 0.002637 0.189153 0.395322 0.868144 -0.073687 -0.604813 0.362112
Anzelma 0.282959 -0.181539 0.340576 -0.037456 0.000698 0.332613 -0.012683 -0.006998 -0.503230 -0.190415 -0.049408 -0.176223 0.717967 -0.212518 -0.161961 -0.512058
Woman2 0.228611 -0.100188 0.392298 -0.134444 0.081657 0.054773 -0.010830 0.002600 -0.428463 -0.346971 -0.003045 -0.184569 0.598517 -0.366936 -0.229733 -0.261153
MmePontmercy 0.408159 -0.030752 0.271825 -0.019965 -0.001697 0.264221 -0.289399 0.093256 -0.480905 -0.364512 -0.117652 -0.212459 0.702274 -0.626552 0.054127 -0.139995
Toussaint 0.150408 -0.062710 0.436697 -0.125731 0.055462 0.008222 -0.069555 -0.005031 -0.336816 -0.421603 -0.081313 -0.285588 0.549754 -0.506094 -0.344169 -0.330715
Magnon 0.308900 -0.131914 0.286738 -0.062314 0.015838 0.295499 -0.060636 0.099024 -0.502433 -0.297829 0.001292 -0.214408 0.682489 -0.403521 -0.106785 -0.397925
MmeBurgon 0.112317 0.250873 0.392354 0.063295 0.229317 0.788154 -0.055603 -0.091542 -0.644666 -0.070292 -0.200234 -0.321562 1.081770 -0.274601 0.280514 -1.002435
BaronessT 0.439924 -0.120735 0.279373 -0.060717 0.073852 0.301001 -0.234203 0.068735 -0.550860 -0.176664 -0.027171 -0.158985 0.701078 -0.395705 -0.047682 -0.233885
Woman1 0.170341 -0.072458 0.304151 -0.262720 0.126424 0.024076 0.042150 0.022341 -0.441155 -0.360046 0.005810 -0.218294 0.681648 -0.222426 -0.230843 -0.304376
MotherInnocent 0.245316 -0.086622 0.345174 -0.543205 0.195434 -0.222074 0.049641 0.416948 -0.562388 -0.330310 -0.010935 -0.340069 0.584489 -0.167510 -0.569178 -0.150302
Child2 0.189351 0.156231 0.366951 0.141434 0.187808 0.585066 -0.030973 -0.354893 -0.428590 -0.273213 -0.114192 -0.391208 0.930505 -0.228262 0.281023 -0.964980
Marguerite 0.055419 -0.030012 0.507538 -0.203095 0.089611 -0.264513 -0.028762 -0.109245 -0.231126 -0.587127 -0.033135 -0.397809 0.503307 -0.484659 -0.496449 -0.334805
Child1 0.167384 0.145576 0.335081 0.117550 0.113662 0.520202 -0.073810 -0.281777 -0.373860 -0.308681 -0.085866 -0.357229 0.880359 -0.266966 0.177758 -0.943939
Perpetue -0.044422 -0.193358 0.551006 -0.223410 -0.020235 -0.294413 -0.059855 -0.197547 -0.221146 -0.538389 -0.071679 -0.284114 0.394227 -0.615669 -0.707280 -0.376789
Champtercier 0.654411 -1.035699 0.557185 -0.248315 0.708796 -0.299756 -0.336097 -0.469263 -0.777955 0.177366 0.124306 0.496121 0.945765 -0.171641 -0.708445 0.482557
Count 0.627269 -1.094204 0.534154 -0.280740 0.709694 -0.400527 -0.288545 -0.446393 -0.767751 0.163122 0.148423 0.576569 0.951780 -0.050345 -0.662971 0.545107
MotherPlutarch 0.425864 -0.037281 0.285602 0.011549 0.293055 0.487263 -0.016974 -0.420675 -0.461670 -0.177966 0.037882 -0.174901 0.778110 -0.056039 0.106770 -0.529395
OldMan 0.640040 -1.029875 0.493889 -0.250671 0.687813 -0.262233 -0.300003 -0.375804 -0.772535 0.154066 0.153781 0.520549 0.953317 -0.097258 -0.631965 0.445142
MlleVaubois 0.519071 -0.131736 0.211610 -0.014370 0.064218 0.291232 -0.361265 0.277900 -0.635518 -0.191175 -0.123928 -0.043675 0.765953 -0.616961 0.101537 0.016900
CountessDeLo 0.620514 -0.989894 0.509128 -0.239031 0.726881 -0.330422 -0.294082 -0.434725 -0.713096 0.171130 0.179516 0.544049 0.861638 -0.001290 -0.694564 0.496924
Jondrette 0.207481 0.270738 0.351321 0.015657 0.248666 0.753330 -0.062735 0.042297 -0.638110 -0.104437 -0.245679 -0.246664 1.120565 -0.261680 0.289034 -1.004364
Napoleon 0.665361 -1.078762 0.543386 -0.260198 0.741002 -0.321761 -0.283290 -0.489154 -0.849774 0.182082 0.138385 0.565102 1.019765 -0.036154 -0.703502 0.465658
Gribier 0.237265 -0.203679 0.277404 -0.598729 0.251402 -0.224489 -0.018617 0.398842 -0.544612 -0.265990 0.053003 -0.265365 0.644842 -0.086259 -0.595536 -0.100346
Geborand 0.682676 -1.032944 0.544840 -0.264461 0.717819 -0.306392 -0.289494 -0.360190 -0.806040 0.163661 0.157818 0.520406 0.954278 -0.096786 -0.705295 0.493406
Gervais 0.183733 -0.188658 0.342214 -0.249608 0.149560 -0.050671 0.052906 0.014411 -0.467021 -0.310465 0.015583 -0.102415 0.633548 -0.197591 -0.317616 -0.189839
Cravatte 0.629831 -1.091024 0.550768 -0.316862 0.759212 -0.371159 -0.292582 -0.403709 -0.808684 0.114420 0.148491 0.531351 1.030503 -0.085396 -0.738654 0.516080
Labarre 0.190389 -0.143353 0.316960 -0.367529 0.146816 -0.149561 0.070639 0.185157 -0.445147 -0.419760 -0.001993 -0.169803 0.626144 -0.242036 -0.389773 -0.119632
Scaufflaire 0.135085 -0.044430 0.370358 -0.314423 0.228424 -0.175693 0.145767 -0.000387 -0.419411 -0.485144 0.046466 -0.221018 0.590339 -0.188285 -0.335936 -0.184110
MmeDeR 0.209987 -0.198905 0.420094 -0.327285 0.217736 -0.333390 0.018474 -0.001578 -0.394103 -0.437604 0.038050 -0.121240 0.569869 -0.311240 -0.472865 -0.032508
Boulatruelle 0.225093 -0.154233 0.334628 -0.068818 0.043646 0.197266 -0.053638 -0.112425 -0.412498 -0.267071 -0.067410 -0.171301 0.704619 -0.277634 -0.148100 -0.408667
Isabeau 0.218333 -0.168764 0.310477 -0.298390 0.194692 -0.120550 0.099062 0.075651 -0.485400 -0.352852 0.056089 -0.165506 0.685987 -0.188837 -0.342211 -0.125205
